digraph Tree {
node [shape=box, style="filled, rounded", color="black", fontname=helvetica] ;
edge [fontname=helvetica] ;
0 [label="X[0] <= 0.77\nmse = 80.339\nsamples = 101\nvalue = 3.851", fillcolor="#e5813940"] ;
1 [label="X[0] <= 0.17\nmse = 16.954\nsamples = 89\nvalue = 1.061", fillcolor="#e5813931"] ;
0 -> 1 [labeldistance=2.5, labelangle=45, headlabel="True"] ;
2 [label="X[0] <= -0.81\nmse = 6.741\nsamples = 59\nvalue = -1.106", fillcolor="#e5813925"] ;
1 -> 2 ;
3 [label="X[0] <= -0.97\nmse = 5.642\nsamples = 10\nvalue = -5.028", fillcolor="#e581390f"] ;
2 -> 3 ;
4 [label="mse = 0.159\nsamples = 2\nvalue = -7.689", fillcolor="#e5813900"] ;
3 -> 4 ;
5 [label="mse = 4.8\nsamples = 8\nvalue = -4.363", fillcolor="#e5813912"] ;
3 -> 5 ;
6 [label="X[0] <= -0.17\nmse = 3.187\nsamples = 49\nvalue = -0.306", fillcolor="#e5813929"] ;
2 -> 6 ;
7 [label="mse = 2.354\nsamples = 32\nvalue = -0.749", fillcolor="#e5813927"] ;
6 -> 7 ;
8 [label="mse = 3.689\nsamples = 17\nvalue = 0.528", fillcolor="#e581392e"] ;
6 -> 8 ;
9 [label="X[0] <= 0.57\nmse = 9.619\nsamples = 30\nvalue = 5.325", fillcolor="#e5813948"] ;
1 -> 9 ;
10 [label="X[0] <= 0.45\nmse = 3.276\nsamples = 20\nvalue = 3.527", fillcolor="#e581393e"] ;
9 -> 10 ;
11 [label="mse = 3.208\nsamples = 14\nvalue = 2.93", fillcolor="#e581393b"] ;
10 -> 11 ;
12 [label="mse = 0.665\nsamples = 6\nvalue = 4.92", fillcolor="#e5813946"] ;
10 -> 12 ;
13 [label="X[0] <= 0.67\nmse = 2.921\nsamples = 10\nvalue = 8.92", fillcolor="#e581395c"] ;
9 -> 13 ;
14 [label="mse = 0.332\nsamples = 5\nvalue = 7.336", fillcolor="#e5813953"] ;
13 -> 14 ;
15 [label="mse = 0.492\nsamples = 5\nvalue = 10.504", fillcolor="#e5813965"] ;
13 -> 15 ;
16 [label="X[0] <= 0.93\nmse = 64.589\nsamples = 12\nvalue = 24.543", fillcolor="#e58139b3"] ;
0 -> 16 [labeldistance=2.5, labelangle=-45, headlabel="False"] ;
17 [label="X[0] <= 0.85\nmse = 13.625\nsamples = 8\nvalue = 19.443", fillcolor="#e5813997"] ;
16 -> 17 ;
18 [label="X[0] <= 0.81\nmse = 0.801\nsamples = 4\nvalue = 15.914", fillcolor="#e5813983"] ;
17 -> 18 ;
19 [label="mse = 0.982\nsamples = 2\nvalue = 15.358", fillcolor="#e5813980"] ;
18 -> 19 ;
20 [label="mse = 0.001\nsamples = 2\nvalue = 16.471", fillcolor="#e5813986"] ;
18 -> 20 ;
21 [label="X[0] <= 0.91\nmse = 1.551\nsamples = 4\nvalue = 22.971", fillcolor="#e58139aa"] ;
17 -> 21 ;
22 [label="mse = 0.477\nsamples = 3\nvalue = 22.34", fillcolor="#e58139a7"] ;
21 -> 22 ;
23 [label="mse = -0.0\nsamples = 1\nvalue = 24.863", fillcolor="#e58139b5"] ;
21 -> 23 ;
24 [label="X[0] <= 0.97\nmse = 10.448\nsamples = 4\nvalue = 34.743", fillcolor="#e58139ec"] ;
16 -> 24 ;
25 [label="X[0] <= 0.95\nmse = 1.413\nsamples = 2\nvalue = 31.631", fillcolor="#e58139db"] ;
24 -> 25 ;
26 [label="mse = 0.0\nsamples = 1\nvalue = 30.443", fillcolor="#e58139d4"] ;
25 -> 26 ;
27 [label="mse = -0.0\nsamples = 1\nvalue = 32.82", fillcolor="#e58139e1"] ;
25 -> 27 ;
28 [label="X[0] <= 0.99\nmse = 0.118\nsamples = 2\nvalue = 37.855", fillcolor="#e58139fd"] ;
24 -> 28 ;
29 [label="mse = 0.0\nsamples = 1\nvalue = 37.511", fillcolor="#e58139fb"] ;
28 -> 29 ;
30 [label="mse = -0.0\nsamples = 1\nvalue = 38.198", fillcolor="#e58139ff"] ;
28 -> 30 ;
}